SVM-light Version V6.20
0 # kernel type
3 # kernel parameter -d 
1 # kernel parameter -g 
1 # kernel parameter -s 
1 # kernel parameter -r 
empty# kernel parameter -u 
17 # highest feature index 
22 # number of training documents 
2 # number of support vectors plus 1 
0 # threshold b, each following line is a SV (starting with alpha*y)
1 1:2.1363361 2:1.9882942 3:3.2055075 4:0.33962303 6:-1.3550136 7:1.6181618 8:4.0682163 9:-2.0325203 10:-4.1998925 11:-3.5681825 12:-3.8676488 #
