SVM-light Version V6.20
0 # kernel type
3 # kernel parameter -d 
1 # kernel parameter -g 
1 # kernel parameter -s 
1 # kernel parameter -r 
empty# kernel parameter -u 
17 # highest feature index 
17 # number of training documents 
2 # number of support vectors plus 1 
0 # threshold b, each following line is a SV (starting with alpha*y)
1 1:1.8839419 2:2.1581438 3:3.9695194 4:0.87796074 7:1.7497497 8:8.2392435 9:1.7985612 10:4.4403696 11:4.4273024 12:4.3848987 #
