SVM-light Version V6.20
0 # kernel type
3 # kernel parameter -d 
1 # kernel parameter -g 
1 # kernel parameter -s 
1 # kernel parameter -r 
empty# kernel parameter -u 
17 # highest feature index 
18 # number of training documents 
2 # number of support vectors plus 1 
0 # threshold b, each following line is a SV (starting with alpha*y)
1 1:-2.2113376 2:1.618351 3:11.910851 4:5.11063 5:2.6688602 6:3.9951544 7:1.3912479 8:4.673214 9:-0.4900758 10:0.26249793 12:1.2058299 #
