SVM-light Version V6.20
0 # kernel type
3 # kernel parameter -d 
1 # kernel parameter -g 
1 # kernel parameter -s 
1 # kernel parameter -r 
empty# kernel parameter -u 
17 # highest feature index 
18 # number of training documents 
2 # number of support vectors plus 1 
0 # threshold b, each following line is a SV (starting with alpha*y)
1 1:1.4036938 2:4.972331 3:10.648178 4:7.1444569 5:2.0372512 7:0.86219561 8:4.8593302 10:1.0034263 11:1.8246119 12:1.8479347 16:1.5923567 #
