SVM-light Version V6.20
0 # kernel type
3 # kernel parameter -d 
1 # kernel parameter -g 
1 # kernel parameter -s 
1 # kernel parameter -r 
empty# kernel parameter -u 
17 # highest feature index 
21 # number of training documents 
2 # number of support vectors plus 1 
0 # threshold b, each following line is a SV (starting with alpha*y)
1 1:7.1650376 2:11.377096 3:11.379675 4:8.0423517 7:0.53334457 8:0.047561564 9:1.9722986 10:-0.070318267 11:3.1126299 12:2.6586823 #
