SVM-light Version V6.20
0 # kernel type
3 # kernel parameter -d 
1 # kernel parameter -g 
1 # kernel parameter -s 
1 # kernel parameter -r 
empty# kernel parameter -u 
17 # highest feature index 
21 # number of training documents 
2 # number of support vectors plus 1 
0 # threshold b, each following line is a SV (starting with alpha*y)
1 1:7.049921 2:10.475195 3:12.453615 4:8.4217701 7:0.62228602 8:0.18432389 10:2.2802913 11:2.6671717 12:2.5659173 #
