SVM-light Version V6.20
0 # kernel type
3 # kernel parameter -d 
1 # kernel parameter -g 
1 # kernel parameter -s 
1 # kernel parameter -r 
empty# kernel parameter -u 
17 # highest feature index 
24 # number of training documents 
2 # number of support vectors plus 1 
0 # threshold b, each following line is a SV (starting with alpha*y)
1 1:3.1028597 2:4.9131908 3:3.1623778 4:2.00367 6:-1.8274332 7:-1.4507445 8:-0.62550932 9:-2.4009602 10:-4.5832148 11:-3.884259 12:-1.8151566 #
