SVM-light Version V6.20
0 # kernel type
3 # kernel parameter -d 
1 # kernel parameter -g 
1 # kernel parameter -s 
1 # kernel parameter -r 
empty# kernel parameter -u 
17 # highest feature index 
16 # number of training documents 
2 # number of support vectors plus 1 
0 # threshold b, each following line is a SV (starting with alpha*y)
1 1:2.5370631 2:2.7738333 3:4.6352615 4:0.081358977 7:1.4441441 8:6.7298784 9:3.1828556 10:1.6689913 11:1.7985599 12:4.5266776 #
