SVM-light Version V6.20
0 # kernel type
3 # kernel parameter -d 
1 # kernel parameter -g 
1 # kernel parameter -s 
1 # kernel parameter -r 
empty# kernel parameter -u 
17 # highest feature index 
16 # number of training documents 
2 # number of support vectors plus 1 
0 # threshold b, each following line is a SV (starting with alpha*y)
1 1:1.508292 2:3.9780293 3:8.9633017 4:6.0549936 5:1.3933673 6:3.5926528 7:2.3786938 8:4.5632172 10:0.082572073 12:1.2623463 16:4.0483737 #
